<?xml version="1.0"?>
<opencv_storage>
<alpd type_id="opencv-haar-classifier">
  <size>
    24 24</size>
  <stages>
    <_>
      <trees>
        <_>
          <_>
            <feature>
              <rects>
                <_>
                  26 6 4 20 -1.</_>
                <_>
                  28 6 2 20 2.</_></rects>
              <tilted>0</tilted></feature>
            <threshold>-0.0387375988066196</threshold>
            <left_val>0.9417474865913391</left_val>
            <right_val>-0.9999998807907105</right_val></_></_></trees>
      <stage_threshold>0.9417474865913391</stage_threshold>
      <parent>-1</parent>
      <next>-1</next></_>
    <_>
      <trees>
        <_>
          <_>
            <feature>
              <rects>
                <_>
                  20 29 1 10 -1.</_>
                <_>
                  20 34 1 5 2.</_></rects>
              <tilted>0</tilted></feature>
            <threshold>-4.6520847827196121e-003</threshold>
            <left_val>0.9303482174873352</left_val>
            <right_val>-0.9396985769271851</right_val></_></_>
        <_>
          <_>
            <feature>
              <rects>
                <_>
                  0 14 8 10 -1.</_>
                <_>
                  2 14 4 10 2.</_></rects>
              <tilted>0</tilted></feature>
            <threshold>0.0114790601655841</threshold>
            <left_val>-1.</left_val>
            <right_val>0.8432180881500244</right_val></_></_></trees>
      <stage_threshold>-0.0964805483818054</stage_threshold>
      <parent>0</parent>
      <next>-1</next></_>
    <_>
      <trees>
        <_>
          <_>
            <feature>
              <rects>
                <_>
                  4 28 13 12 -1.</_>
                <_>
                  4 31 13 6 2.</_></rects>
              <tilted>0</tilted></feature>
            <threshold>0.0269527994096279</threshold>
            <left_val>-0.9574468135833740</left_val>
            <right_val>0.8490576148033142</right_val></_></_>
        <_>
          <_>
            <feature>
              <rects>
                <_>
                  10 8 4 26 -1.</_>
                <_>
                  10 8 2 13 2.</_>
                <_>
                  12 21 2 13 2.</_></rects>
              <tilted>0</tilted></feature>
            <threshold>-0.0195902995765209</threshold>
            <left_val>0.9217609167098999</left_val>
            <right_val>-0.8348587155342102</right_val></_></_></trees>
      <stage_threshold>-0.0356859602034092</stage_threshold>
      <parent>1</parent>
      <next>-1</next></_>
    <_>
      <trees>
        <_>
          <_>
            <feature>
              <rects>
                <_>
                  1 0 4 14 -1.</_>
                <_>
                  1 7 4 7 2.</_></rects>
              <tilted>0</tilted></feature>
            <threshold>0.0193003900349140</threshold>
            <left_val>-0.9381443262100220</left_val>
            <right_val>0.8834959268569946</right_val></_></_>
        <_>
          <_>
            <feature>
              <rects>
                <_>
                  1 0 6 36 -1.</_>
                <_>
                  3 12 2 12 9.</_></rects>
              <tilted>0</tilted></feature>
            <threshold>0.1116657033562660</threshold>
            <left_val>-0.9345005750656128</left_val>
            <right_val>0.8221365809440613</right_val></_></_></trees>
      <stage_threshold>-0.1160077005624771</stage_threshold>
      <parent>2</parent>
      <next>-1</next></_>
    <_>
      <trees>
        <_>
          <_>
            <feature>
              <rects>
                <_>
                  15 13 4 6 -1.</_>
                <_>
                  17 13 2 6 2.</_></rects>
              <tilted>0</tilted></feature>
            <threshold>-3.7901459727436304e-003</threshold>
            <left_val>0.7716894745826721</left_val>
            <right_val>-0.9337015748023987</right_val></_></_>
        <_>
          <_>
            <feature>
              <rects>
                <_>
                  21 28 8 3 -1.</_>
                <_>
                  21 28 4 3 2.</_></rects>
              <tilted>1</tilted></feature>
            <threshold>0.0268860608339310</threshold>
            <left_val>-0.8148025870323181</left_val>
            <right_val>0.8957402706146240</right_val></_></_></trees>
      <stage_threshold>-0.0431130491197109</stage_threshold>
      <parent>3</parent>
      <next>-1</next></_>
    <_>
      <trees>
        <_>
          <_>
            <feature>
              <rects>
                <_>
                  8 17 4 8 -1.</_>
                <_>
                  8 19 4 4 2.</_></rects>
              <tilted>0</tilted></feature>
            <threshold>2.6877371128648520e-003</threshold>
            <left_val>-0.9153438806533814</left_val>
            <right_val>0.8199055194854736</right_val></_></_>
        <_>
          <_>
            <feature>
              <rects>
                <_>
                  24 0 1 6 -1.</_>
                <_>
                  24 3 1 3 2.</_></rects>
              <tilted>0</tilted></feature>
            <threshold>1.1343719670549035e-003</threshold>
            <left_val>-0.9702988266944885</left_val>
            <right_val>0.7421653270721436</right_val></_></_></trees>
      <stage_threshold>-0.1731785982847214</stage_threshold>
      <parent>4</parent>
      <next>-1</next></_></stages></alpd>
</opencv_storage>
